<?xml version="1.0"?>
<opencv_storage>
<cascade>
  <stageType>BOOST</stageType>
  <featureType>HAAR</featureType>
  <height>24</height>
  <width>24</width>
  <stageParams>
    <boostType>GAB</boostType>
    <minHitRate>9.9500000476837158e-01</minHitRate>
    <maxFalseAlarm>5.0000000000000000e-01</maxFalseAlarm>
    <weightTrimRate>9.4999998807907104e-01</weightTrimRate>
    <maxDepth>1</maxDepth>
    <maxWeakCount>100</maxWeakCount></stageParams>
  <featureParams>
    <maxCatCount>0</maxCatCount>
    <featSize>1</featSize>
    <mode>BASIC</mode></featureParams>
  <stageNum>20</stageNum>
  <stages>
    <!-- stage 0 -->
    <_>
      <maxWeakCount>5</maxWeakCount>
      <stageThreshold>-1.5883001089096069e+00</stageThreshold>
      <weakClassifiers>
        <_>
          <internalNodes>
            0 -1 33 1.3329820707440376e-02</internalNodes>
          <leafValues>
            -8.5535198450088501e-01 4.6853145956993103e-01</leafValues></_>
        <_>
          <internalNodes>
            0 -1 128 -7.4541792273521423e-03</internalNodes>
          <leafValues>
            3.6248728632926941e-01 -8.3258807659149170e-01</leafValues></_>
        <_>
          <internalNodes>
            0 -1 179 4.5791099546477199e-04</internalNodes>
          <leafValues>
            -8.6675828695297241e-01 3.4212860465049744e-01</leafValues></_>
        <_>
          <internalNodes>
            0 -1 94 -3.1277863308787346e-03</internalNodes>
          <leafValues>
            6.1459082365036011e-01 -4.6078822016716003e-01</leafValues></_>
        <_>
          <internalNodes>
            0 -1 14 -2.5259267538785934e-02</internalNodes>
          <leafValues>
            3.5180744528770447e-01 -7.7061408758163452e-01</leafValues></_></weakClassifiers></_>
    <!-- stage 1 -->
    <_>
      <maxWeakCount>6</maxWeakCount>
      <stageThreshold>-2.2833352088928223e+00</stageThreshold>
      <weakClassifiers>
        <_>
          <internalNodes>
            0 -1 75 4.1153103113174438e-02</internalNodes>
          <leafValues>
            -8.2641512155532837e-01 4.6666666865348816e-01</leafValues></_>
        <_>
          <internalNodes>
            0 -1 46 -2.1155481226742268e-03</internalNodes>
          <leafValues>
            4.0740546584129333e-01 -6.1895644664764404e-01</leafValues></_>
        <_>
          <internalNodes>
            0 -1 172 -2.2040738258510828e-04</internalNodes>
          <leafValues>
            5.4670917987823486e-01 -5.1788681745529175e-01</leafValues></_>
        <_>
          <internalNodes>
            0 -1 85 1.0758267715573311e-02</internalNodes>
          <leafValues>
            -3.5297229886054993e-01 7.4057203531265259e-01</leafValues></_>
        <_>
          <internalNodes>
            0 -1 28 -4.8500100092496723e-05</internalNodes>
          <leafValues>
            4.2817789316177368e-01 -6.1039656400680542e-01</leafValues></_>
        <_>
          <internalNodes>
            0 -1 89 6.6146392782684416e-05</internalNodes>
          <leafValues>
            -4.5025235414505005e-01 5.5753827095031738e-01</leafValues></_></weakClassifiers></_>
    <!-- stage 2 -->
    <_>
      <maxWeakCount>7</maxWeakCount>
      <stageThreshold>-1.7449424266815186e+00</stageThreshold>
      <weakClassifiers>
        <_>
          <internalNodes>
            0 -1 90 1.0914757847785950e-01</internalNodes>
          <leafValues>
            -7.9924243688583374e-01 1.9354838132858276e-01</leafValues></_>
        <_>
          <internalNodes>
            0 -1 166 -2.0364526426419616e-04</internalNodes>
          <leafValues>
            5.5136322975158691e-01 -5.1538038253784180e-01</leafValues></_>
        <_>
          <internalNodes>
            0 -1 52 -5.1029946916969493e-05</internalNodes>
          <leafValues>
            3.5964703559875488e-01 -6.1968684196472168e-01</leafValues></_>
        <_>
          <internalNodes>
            0 -1 151 -1.4822775483480655e-05</internalNodes>
          <leafValues>
            5.7096660137176514e-01 -3.9416205883026123e-01</leafValues></_>
        <_>
          <internalNodes>
            0 -1 187 9.0561173856258392e-03</internalNodes>
          <leafValues>
            -2.6839733123779297e-01 8.7718641757965088e-01</leafValues></_>
        <_>
          <internalNodes>
            0 -1 37 -6.2534300377592444e-04</internalNodes>
          <leafValues>
            5.5130726099014282e-01 -3.6964946985244751e-01</leafValues></_>
        <_>
          <internalNodes>
            0 -1 143 -1.3654420152306557e-02</internalNodes>
          <leafValues>
            3.3696261048316956e-01 -8.1029617786407471e-01</leafValues></_></weakClassifiers></_>
    <!-- stage 3 -->
    <_>
      <maxWeakCount>8</maxWeakCount>
      <stageThreshold>-1.9189437627792358e+00</stageThreshold>
      <weakClassifiers>
        <_>
          <internalNodes>
            0 -1 88 2.6927065849304199e-01</internalNodes>
          <leafValues>
            -7.8181821107864380e-01 5.0000000000000000e-01</leafValues></_>
        <_>
          <internalNodes>
            0 -1 55 2.3820713162422180e-02</internalNodes>
          <leafValues>
            -4.2179986834526062e-01 5.7473945617675781e-01</leafValues></_>
        <_>
          <internalNodes>
            0 -1 193 1.4482709957519546e-05</internalNodes>
          <leafValues>
            -6.7638319730758667e-01 2.7525481581687927e-01</leafValues></_>
        <_>
          <internalNodes>
            0 -1 63 -1.0811769962310791e-01</internalNodes>
          <leafValues>
            5.0213491916656494e-01 -3.6492818593978882e-01</leafValues></_>
        <_>
          <internalNodes>
            0 -1 118 -1.3691821694374084e-01</internalNodes>
          <leafValues>
            4.1160079836845398e-01 -4.3227568268775940e-01</leafValues></_>
        <_>
          <internalNodes>
            0 -1 32 -1.2594665586948395e-01</internalNodes>
          <leafValues>
            7.4668556451797485e-01 -1.8036511540412903e-01</leafValues></_>
        <_>
          <internalNodes>
            0 -1 13 -9.8201911896467209e-05</internalNodes>
          <leafValues>
            2.5025510787963867e-01 -6.5064328908920288e-01</leafValues></_>
        <_>
          <internalNodes>
            0 -1 96 -2.7821674011647701e-03</internalNodes>
          <leafValues>
            5.9307414293289185e-01 -2.6326662302017212e-01</leafValues></_></weakClassifiers></_>
    <!-- stage 4 -->
    <_>
      <maxWeakCount>10</maxWeakCount>
      <stageThreshold>-1.8638139963150024e+00</stageThreshold>
      <weakClassifiers>
        <_>
          <internalNodes>
            0 -1 59 1.8510639667510986e-01</internalNodes>
          <leafValues>
            -7.9770994186401367e-01 1.2121212482452393e-01</leafValues></_>
        <_>
          <internalNodes>
            0 -1 20 -5.9982184320688248e-03</internalNodes>
          <leafValues>
            2.7227682992815971e-02 -7.3828262090682983e-01</leafValues></_>
        <_>
          <internalNodes>
            0 -1 155 2.0563802681863308e-03</internalNodes>
          <leafValues>
            -6.1616218090057373e-01 1.9887097179889679e-01</leafValues></_>
        <_>
          <internalNodes>
            0 -1 114 2.6593281654641032e-04</internalNodes>
          <leafValues>
            1.8435175716876984e-01 -8.0781018733978271e-01</leafValues></_>
        <_>
          <internalNodes>
            0 -1 84 -3.9218470454216003e-02</internalNodes>
          <leafValues>
            5.6413239240646362e-01 -2.5653380155563354e-01</leafValues></_>
        <_>
          <internalNodes>
            0 -1 100 -2.1240327507257462e-02</internalNodes>
          <leafValues>
            3.6546912789344788e-01 -3.6437046527862549e-01</leafValues></_>
        <_>
          <internalNodes>
            0 -1 190 3.5994271747767925e-03</internalNodes>
          <leafValues>
            -2.5329896807670593e-01 5.9386354684829712e-01</leafValues></_>
        <_>
          <internalNodes>
            0 -1 91 -1.2496085837483406e-02</internalNodes>
          <leafValues>
            -6.5899145603179932e-01 1.9480235874652863e-01</leafValues></_>
        <_>
          <internalNodes>
            0 -1 185 5.3580508392769843e-05</internalNodes>
          <leafValues>
            -5.1233994960784912e-01 2.1528500318527222e-01</leafValues></_>
        <_>
          <internalNodes>
            0 -1 117 4.2159603908658028e-03</internalNodes>
          <leafValues>
            -2.4593003094196320e-01 6.0298603773117065e-01</leafValues></_></weakClassifiers></_>
    <!-- stage 5 -->
    <_>
      <maxWeakCount>10</maxWeakCount>
      <stageThreshold>-1.6706438064575195e+00</stageThreshold>
      <weakClassifiers>
        <_>
          <internalNodes>
            0 -1 60 1.7267463728785515e-02</internalNodes>
          <leafValues>
            -7.8825795650482178e-01 -7.0921983569860458e-03</leafValues></_>
        <_>
          <internalNodes>
            0 -1 2 7.3523148894309998e-03</internalNodes>
          <leafValues>
            -4.1852334141731262e-01 4.7656756639480591e-01</leafValues></_>
        <_>
          <internalNodes>
            0 -1 147 -5.5734422057867050e-02</internalNodes>
          <leafValues>
            3.8535031676292419e-01 -3.7547498941421509e-01</leafValues></_>
        <_>
          <internalNodes>
            0 -1 18 -1.8057377019431442e-05</internalNodes>
          <leafValues>
            3.0479207634925842e-01 -4.3688148260116577e-01</leafValues></_>
        <_>
          <internalNodes>
            0 -1 156 -5.3774733096361160e-03</internalNodes>
          <leafValues>
            4.2785665392875671e-01 -3.1490579247474670e-01</leafValues></_>
        <_>
          <internalNodes>
            0 -1 77 -1.2300149537622929e-03</internalNodes>
          <leafValues>
            4.7378966212272644e-01 -2.6501399278640747e-01</leafValues></_>
        <_>
          <internalNodes>
            0 -1 126 -4.0289378375746310e-05</internalNodes>
          <leafValues>
            4.3871310353279114e-01 -2.9702335596084595e-01</leafValues></_>
        <_>
          <internalNodes>
            0 -1 177 2.4549369700253010e-03</internalNodes>
          <leafValues>
            -3.6048865318298340e-01 3.6382892727851868e-01</leafValues></_>
        <_>
          <internalNodes>
            0 -1 158 3.9505939639639109e-05</internalNodes>
          <leafValues>
            -4.1150099039077759e-01 3.1788781285285950e-01</leafValues></_>
        <_>
          <internalNodes>
            0 -1 80 -1.4283295720815659e-02</internalNodes>
          <leafValues>
            6.5651887655258179e-01 -2.0937214791774750e-01</leafValues></_></weakClassifiers></_>
    <!-- stage 6 -->
    <_>
      <maxWeakCount>7</maxWeakCount>
      <stageThreshold>-1.5989056825637817e+00</stageThreshold>
      <weakClassifiers>
        <_>
          <internalNodes>
            0 -1 49 -3.7538975477218628e-01</internalNodes>
          <leafValues>
            2.7433627843856812e-01 -7.9756325483322144e-01</leafValues></_>
        <_>
          <internalNodes>
            0 -1 34 -1.0302356444299221e-02</internalNodes>
          <leafValues>
            4.1173732280731201e-01 -4.6069890260696411e-01</leafValues></_>
        <_>
          <internalNodes>
            0 -1 134 5.5769598111510277e-04</internalNodes>
          <leafValues>
            1.3338956236839294e-01 -9.1922026872634888e-01</leafValues></_>
        <_>
          <internalNodes>
            0 -1 140 5.1255867583677173e-04</internalNodes>
          <leafValues>
            1.5771611034870148e-01 -9.0575861930847168e-01</leafValues></_>
        <_>
          <internalNodes>
            0 -1 113 -3.9116916013881564e-04</internalNodes>
          <leafValues>
            3.2165941596031189e-01 -4.7427132725715637e-01</leafValues></_>
        <_>
          <internalNodes>
            0 -1 24 8.8909240439534187e-03</internalNodes>
          <leafValues>
            -2.5618985295295715e-01 5.8008217811584473e-01</leafValues></_>
        <_>
          <internalNodes>
            0 -1 72 -2.0558094978332520e-01</internalNodes>
          <leafValues>
            3.2001459598541260e-01 -5.1704514026641846e-01</leafValues></_></weakClassifiers></_>
    <!-- stage 7 -->
    <_>
      <maxWeakCount>7</maxWeakCount>
      <stageThreshold>-1.6240533590316772e+00</stageThreshold>
      <weakClassifiers>
        <_>
          <internalNodes>
            0 -1 82 -1.4789180568186566e-05</internalNodes>
          <leafValues>
            -3.4513273835182190e-01 -8.3590960502624512e-01</leafValues></_>
        <_>
          <internalNodes>
            0 -1 101 1.4147565707389731e-05</internalNodes>
          <leafValues>
            -5.3281092643737793e-01 1.8255890905857086e-01</leafValues></_>
        <_>
          <internalNodes>
            0 -1 160 1.5954990885802545e-05</internalNodes>
          <leafValues>
            -4.5673945546150208e-01 3.2327896356582642e-01</leafValues></_>
        <_>
          <internalNodes>
            0 -1 142 -1.5888051129877567e-03</internalNodes>
          <leafValues>
            -5.5439591407775879e-01 2.5604456663131714e-01</leafValues></_>
        <_>
          <internalNodes>
            0 -1 86 -1.6500690951943398e-02</internalNodes>
          <leafValues>
            7.3565560579299927e-01 -1.6485743224620819e-01</leafValues></_>
        <_>
          <internalNodes>
            0 -1 57 1.9133653040626086e-05</internalNodes>
          <leafValues>
            -3.9394503831863403e-01 3.7185996770858765e-01</leafValues></_>
        <_>
          <internalNodes>
            0 -1 6 -8.5318284109234810e-03</internalNodes>
          <leafValues>
            5.2709430456161499e-01 -2.3121832311153412e-01</leafValues></_></weakClassifiers></_>
    <!-- stage 8 -->
    <_>
      <maxWeakCount>10</maxWeakCount>
      <stageThreshold>-1.6194860935211182e+00</stageThreshold>
      <weakClassifiers>
        <_>
          <internalNodes>
            0 -1 98 2.8683409094810486e-02</internalNodes>
          <leafValues>
            -7.4688059091567993e-01 3.1034481525421143e-01</leafValues></_>
        <_>
          <internalNodes>
            0 -1 171 -7.5265555642545223e-04</internalNodes>
          <leafValues>
            2.6864850521087646e-01 -4.1739600896835327e-01</leafValues></_>
        <_>
          <internalNodes>
            0 -1 170 6.3150119967758656e-04</internalNodes>
          <leafValues>
            -2.4358581006526947e-01 4.6999374032020569e-01</leafValues></_>
        <_>
          <internalNodes>
            0 -1 68 -2.2121539586805739e-05</internalNodes>
          <leafValues>
            2.3989550769329071e-01 -4.4961073994636536e-01</leafValues></_>
        <_>
          <internalNodes>
            0 -1 61 -6.4016907708719373e-04</internalNodes>
          <leafValues>
            5.5621230602264404e-01 -1.9151115417480469e-01</leafValues></_>
        <_>
          <internalNodes>
            0 -1 179 4.5645615318790078e-04</internalNodes>
          <leafValues>
            -6.2335050106048584e-01 1.7550782859325409e-01</leafValues></_>
        <_>
          <internalNodes>
            0 -1 105 -4.9834060482680798e-03</internalNodes>
          <leafValues>
            -8.3067709207534790e-01 1.5437182784080505e-01</leafValues></_>
        <_>
          <internalNodes>
            0 -1 176 -2.1044476306997240e-04</internalNodes>
          <leafValues>
            3.5577201843261719e-01 -2.9322603344917297e-01</leafValues></_>
        <_>
          <internalNodes>
            0 -1 197 2.2748175542801619e-03</internalNodes>
          <leafValues>
            1.8523624539375305e-01 -6.2894695997238159e-01</leafValues></_>
        <_>
          <internalNodes>
            0 -1 151 -1.4822775483480655e-05</internalNodes>
          <leafValues>
            3.3228528499603271e-01 -3.1148058176040649e-01</leafValues></_></weakClassifiers></_>
    <!-- stage 9 -->
    <_>
      <maxWeakCount>12</maxWeakCount>
      <stageThreshold>-1.5516327619552612e+00</stageThreshold>
      <weakClassifiers>
        <_>
          <internalNodes>
            0 -1 74 -4.8368978500366211e-01</internalNodes>
          <leafValues>
            1.1494252830743790e-02 -7.5114363431930542e-01</leafValues></_>
        <_>
          <internalNodes>
            0 -1 5 -4.0090996772050858e-03</internalNodes>
          <leafValues>
            2.5345140695571899e-01 -4.3467628955841064e-01</leafValues></_>
        <_>
          <internalNodes>
            0 -1 16 -4.5866323634982109e-03</internalNodes>
          <leafValues>
            1.6747188568115234e-01 -5.4871082305908203e-01</leafValues></_>
        <_>
          <internalNodes>
            0 -1 8 4.1971877217292786e-03</internalNodes>
          <leafValues>
            1.4141869544982910e-01 -6.9224971532821655e-01</leafValues></_>
        <_>
          <internalNodes>
            0 -1 181 -7.3559704469516873e-04</internalNodes>
          <leafValues>
            4.3876186013221741e-01 -2.1460673213005066e-01</leafValues></_>
        <_>
          <internalNodes>
            0 -1 83 -3.9206811925396323e-04</internalNodes>
          <leafValues>
            -5.0361198186874390e-01 2.0966593921184540e-01</leafValues></_>
        <_>
          <internalNodes>
            0 -1 146 2.6544146239757538e-03</internalNodes>
          <leafValues>
            1.3859818875789642e-01 -6.5284544229507446e-01</leafValues></_>
        <_>
          <internalNodes>
            0 -1 154 3.9105657488107681e-03</internalNodes>
          <leafValues>
            1.6226182878017426e-01 -6.6244000196456909e-01</leafValues></_>
        <_>
          <internalNodes>
            0 -1 81 1.4779709999857005e-05</internalNodes>
          <leafValues>
            -3.3453452587127686e-01 3.2623317837715149e-01</leafValues></_>
        <_>
          <internalNodes>
            0 -1 17 -1.2238570488989353e-02</internalNodes>
          <leafValues>
            1.5719056129455566e-01 -6.6472649574279785e-01</leafValues></_>
        <_>
          <internalNodes>
            0 -1 70 -8.8490225374698639e-02</internalNodes>
          <leafValues>
            5.0125312805175781e-01 -2.3613552749156952e-01</leafValues></_>
        <_>
          <internalNodes>
            0 -1 164 -1.7730960098560899e-04</internalNodes>
          <leafValues>
            4.0750211477279663e-01 -2.5989851355552673e-01</leafValues></_></weakClassifiers></_>
    <!-- stage 10 -->
    <_>
      <maxWeakCount>11</maxWeakCount>
      <stageThreshold>-1.5244623422622681e+00</stageThreshold>
      <weakClassifiers>
        <_>
          <internalNodes>
            0 -1 180 -6.5150484442710876e-03</internalNodes>
          <leafValues>
            -2.0603014528751373e-01 -7.9408764839172363e-01</leafValues></_>
        <_>
          <internalNodes>
            0 -1 192 3.7675825296901166e-05</internalNodes>
          <leafValues>
            -6.7722272872924805e-01 2.6961257681250572e-03</leafValues></_>
        <_>
          <internalNodes>
            0 -1 11 -3.6873868666589260e-03</internalNodes>
          <leafValues>
            -8.0070525407791138e-01 1.0508612543344498e-01</leafValues></_>
        <_>
          <internalNodes>
            0 -1 12 5.1767211407423019e-03</internalNodes>
          <leafValues>
            1.2476363778114319e-01 -7.2464030981063843e-01</leafValues></_>
        <_>
          <internalNodes>
            0 -1 39 2.2459158208221197e-03</internalNodes>
          <leafValues>
            -2.4458864331245422e-01 4.1526874899864197e-01</leafValues></_>
        <_>
          <internalNodes>
            0 -1 116 -5.8082719333469868e-03</internalNodes>
          <leafValues>
            -5.8174151182174683e-01 1.5741890668869019e-01</leafValues></_>
        <_>
          <internalNodes>
            0 -1 23 -1.5958704054355621e-02</internalNodes>
          <leafValues>
            5.1356965303421021e-01 -2.0713829994201660e-01</leafValues></_>
        <_>
          <internalNodes>
            0 -1 127 2.8007463552057743e-03</internalNodes>
          <leafValues>
            1.8489046394824982e-01 -5.9224361181259155e-01</leafValues></_>
        <_>
          <internalNodes>
            0 -1 26 -2.6834881864488125e-03</internalNodes>
          <leafValues>
            5.0222581624984741e-01 -2.2248436510562897e-01</leafValues></_>
        <_>
          <internalNodes>
            0 -1 27 2.6119063841179013e-04</internalNodes>
          <leafValues>
            -2.4811561405658722e-01 4.7726768255233765e-01</leafValues></_>
        <_>
          <internalNodes>
            0 -1 51 2.0183410961180925e-03</internalNodes>
          <leafValues>
            -1.4093255996704102e-01 6.2037402391433716e-01</leafValues></_></weakClassifiers></_>
    <!-- stage 11 -->
    <_>
      <maxWeakCount>11</maxWeakCount>
      <stageThreshold>-1.6472247838973999e+00</stageThreshold>
      <weakClassifiers>
        <_>
          <internalNodes>
            0 -1 98 3.1810853630304337e-02</internalNodes>
          <leafValues>
            -7.4035090208053589e-01 6.0000002384185791e-01</leafValues></_>
        <_>
          <internalNodes>
            0 -1 123 -3.3130429801531136e-04</internalNodes>
          <leafValues>
            6.3323922455310822e-02 -5.2735221385955811e-01</leafValues></_>
        <_>
          <internalNodes>
            0 -1 133 -4.1550979949533939e-04</internalNodes>
          <leafValues>
            -6.7119336128234863e-01 1.2121900916099548e-01</leafValues></_>
        <_>
          <internalNodes>
            0 -1 178 9.8763754067476839e-05</internalNodes>
          <leafValues>
            -4.3659928441047668e-01 2.0348359644412994e-01</leafValues></_>
        <_>
          <internalNodes>
            0 -1 45 -4.1573066264390945e-02</internalNodes>
          <leafValues>
            3.7959069013595581e-01 -2.6974591612815857e-01</leafValues></_>
        <_>
          <internalNodes>
            0 -1 56 1.0457053780555725e-02</internalNodes>
          <leafValues>
            -2.5826680660247803e-01 3.8982430100440979e-01</leafValues></_>
        <_>
          <internalNodes>
            0 -1 71 -2.1780230104923248e-02</internalNodes>
          <leafValues>
            8.1915378570556641e-01 -1.0405337810516357e-01</leafValues></_>
        <_>
          <internalNodes>
            0 -1 30 4.4804986828239635e-05</internalNodes>
          <leafValues>
            -3.0654197931289673e-01 2.9762598872184753e-01</leafValues></_>
        <_>
          <internalNodes>
            0 -1 195 3.0082796001806855e-05</internalNodes>
          <leafValues>
            -5.0752949714660645e-01 1.6754660010337830e-01</leafValues></_>
        <_>
          <internalNodes>
            0 -1 76 2.7553010731935501e-03</internalNodes>
          <leafValues>
            -2.7228417992591858e-01 3.2969099283218384e-01</leafValues></_>
        <_>
          <internalNodes>
            0 -1 188 5.6014454457908869e-04</internalNodes>
          <leafValues>
            -1.8646205961704254e-01 5.1759386062622070e-01</leafValues></_></weakClassifiers></_>
    <!-- stage 12 -->
    <_>
      <maxWeakCount>10</maxWeakCount>
      <stageThreshold>-1.4151464700698853e+00</stageThreshold>
      <weakClassifiers>
        <_>
          <internalNodes>
            0 -1 99 3.1007613986730576e-02</internalNodes>
          <leafValues>
            -7.4571686983108521e-01 9.8591551184654236e-02</leafValues></_>
        <_>
          <internalNodes>
            0 -1 134 2.4796987418085337e-04</internalNodes>
          <leafValues>
            -7.1132265031337738e-02 -7.7720290422439575e-01</leafValues></_>
        <_>
          <internalNodes>
            0 -1 196 -1.3862604275345802e-02</internalNodes>
          <leafValues>
            -9.3888419866561890e-01 6.4530365169048309e-02</leafValues></_>
        <_>
          <internalNodes>
            0 -1 157 -1.7314274373347871e-05</internalNodes>
          <leafValues>
            3.2162404060363770e-01 -2.5113549828529358e-01</leafValues></_>
        <_>
          <internalNodes>
            0 -1 108 -7.1860356256365776e-03</internalNodes>
          <leafValues>
            4.4823765754699707e-01 -1.9812570512294769e-01</leafValues></_>
        <_>
          <internalNodes>
            0 -1 153 -4.5057170093059540e-02</internalNodes>
          <leafValues>
            4.3986701965332031e-01 -1.8651150166988373e-01</leafValues></_>
        <_>
          <internalNodes>
            0 -1 152 -3.9899692637845874e-05</internalNodes>
          <leafValues>
            2.5535318255424500e-01 -3.3304831385612488e-01</leafValues></_>
        <_>
          <internalNodes>
            0 -1 19 -3.9332839660346508e-03</internalNodes>
          <leafValues>
            1.8881578743457794e-01 -4.1508656740188599e-01</leafValues></_>
        <_>
          <internalNodes>
            0 -1 122 6.1347920564003289e-05</internalNodes>
          <leafValues>
            -2.5628307461738586e-01 3.1077542901039124e-01</leafValues></_>
        <_>
          <internalNodes>
            0 -1 150 -1.7436079680919647e-02</internalNodes>
          <leafValues>
            9.2567485570907593e-01 -8.2763038575649261e-02</leafValues></_></weakClassifiers></_>
    <!-- stage 13 -->
    <_>
      <maxWeakCount>13</maxWeakCount>
      <stageThreshold>-1.4313951730728149e+00</stageThreshold>
      <weakClassifiers>
        <_>
          <internalNodes>
            0 -1 129 -7.3316916823387146e-02</internalNodes>
          <leafValues>
            7.7777779102325439e-01 -7.1772807836532593e-01</leafValues></_>
        <_>
          <internalNodes>
            0 -1 145 1.3007256202399731e-03</internalNodes>
          <leafValues>
            -3.5873419046401978e-01 2.4996463954448700e-01</leafValues></_>
        <_>
          <internalNodes>
            0 -1 9 1.8709764117375016e-04</internalNodes>
          <leafValues>
            -2.3927180469036102e-01 3.4497851133346558e-01</leafValues></_>
        <_>
          <internalNodes>
            0 -1 161 4.5782569795846939e-03</internalNodes>
          <leafValues>
            9.9763669073581696e-02 -8.5099905729293823e-01</leafValues></_>
        <_>
          <internalNodes>
            0 -1 43 7.5277080759406090e-04</internalNodes>
          <leafValues>
            -1.3987724483013153e-01 5.4532343149185181e-01</leafValues></_>
        <_>
          <internalNodes>
            0 -1 35 -1.1122736614197493e-03</internalNodes>
          <leafValues>
            3.5045695304870605e-01 -2.2057092189788818e-01</leafValues></_>
        <_>
          <internalNodes>
            0 -1 115 5.3004696965217590e-03</internalNodes>
          <leafValues>
            1.2559838593006134e-01 -6.3719719648361206e-01</leafValues></_>
        <_>
          <internalNodes>
            0 -1 119 -3.8973167538642883e-03</internalNodes>
          <leafValues>
            -7.0069962739944458e-01 1.2717165052890778e-01</leafValues></_>
        <_>
          <internalNodes>
            0 -1 58 4.3028257787227631e-03</internalNodes>
          <leafValues>
            -2.1891024708747864e-01 4.4816097617149353e-01</leafValues></_>
        <_>
          <internalNodes>
            0 -1 29 -5.5160013289423659e-05</internalNodes>
          <leafValues>
            1.9205759465694427e-01 -4.5058098435401917e-01</leafValues></_>
        <_>
          <internalNodes>
            0 -1 50 9.5632014563307166e-05</internalNodes>
          <leafValues>
            -2.4159127473831177e-01 3.2242259383201599e-01</leafValues></_>
        <_>
          <internalNodes>
            0 -1 183 -6.0171078075654805e-05</internalNodes>
          <leafValues>
            2.8985109925270081e-01 -2.9042911529541016e-01</leafValues></_>
        <_>
          <internalNodes>
            0 -1 53 -5.2641483489423990e-04</internalNodes>
          <leafValues>
            -5.2163636684417725e-01 1.6500204801559448e-01</leafValues></_></weakClassifiers></_>
    <!-- stage 14 -->
    <_>
      <maxWeakCount>14</maxWeakCount>
      <stageThreshold>-1.4185171127319336e+00</stageThreshold>
      <weakClassifiers>
        <_>
          <internalNodes>
            0 -1 110 4.2901426553726196e-01</internalNodes>
          <leafValues>
            -7.2695654630661011e-01 5.3333336114883423e-01</leafValues></_>
        <_>
          <internalNodes>
            0 -1 7 -1.4534693909808993e-03</internalNodes>
          <leafValues>
            2.4393883347511292e-01 -3.5599511861801147e-01</leafValues></_>
        <_>
          <internalNodes>
            0 -1 10 2.0839108619838953e-03</internalNodes>
          <leafValues>
            -1.6535645723342896e-01 4.7303286194801331e-01</leafValues></_>
        <_>
          <internalNodes>
            0 -1 42 -3.0571806430816650e-01</internalNodes>
          <leafValues>
            4.7401526570320129e-01 -2.0152534544467926e-01</leafValues></_>
        <_>
          <internalNodes>
            0 -1 163 4.3681055307388306e-02</internalNodes>
          <leafValues>
            -1.3179478049278259e-01 5.8936804533004761e-01</leafValues></_>
        <_>
          <internalNodes>
            0 -1 141 1.9735842943191528e-04</internalNodes>
          <leafValues>
            2.0501744747161865e-01 -4.1066426038742065e-01</leafValues></_>
        <_>
          <internalNodes>
            0 -1 194 -9.5422798767685890e-04</internalNodes>
          <leafValues>
            -7.8265607357025146e-01 1.3470746576786041e-01</leafValues></_>
        <_>
          <internalNodes>
            0 -1 162 -1.7279063467867672e-04</internalNodes>
          <leafValues>
            2.7879503369331360e-01 -2.7024194598197937e-01</leafValues></_>
        <_>
          <internalNodes>
            0 -1 47 2.2419236483983696e-04</internalNodes>
          <leafValues>
            -1.8948094546794891e-01 3.6197912693023682e-01</leafValues></_>
        <_>
          <internalNodes>
            0 -1 191 -1.9820753950625658e-03</internalNodes>
          <leafValues>
            -6.7402303218841553e-01 1.1611624807119370e-01</leafValues></_>
        <_>
          <internalNodes>
            0 -1 184 -2.9193595983088017e-03</internalNodes>
          <leafValues>
            4.7879621386528015e-01 -1.8249627947807312e-01</leafValues></_>
        <_>
          <internalNodes>
            0 -1 97 3.0696350149810314e-03</internalNodes>
          <leafValues>
            -1.9683778285980225e-01 4.2041355371475220e-01</leafValues></_>
        <_>
          <internalNodes>
            0 -1 131 2.2071539424359798e-03</internalNodes>
          <leafValues>
            9.0698093175888062e-02 -9.4050806760787964e-01</leafValues></_>
        <_>
          <internalNodes>
            0 -1 40 -6.2919825315475464e-02</internalNodes>
          <leafValues>
            6.6131794452667236e-01 -1.4430515468120575e-01</leafValues></_></weakClassifiers></_>
    <!-- stage 15 -->
    <_>
      <maxWeakCount>11</maxWeakCount>
      <stageThreshold>-1.4290683269500732e+00</stageThreshold>
      <weakClassifiers>
        <_>
          <internalNodes>
            0 -1 31 2.2959526628255844e-02</internalNodes>
          <leafValues>
            -7.8071063756942749e-01 -2.6153847575187683e-01</leafValues></_>
        <_>
          <internalNodes>
            0 -1 107 -1.0242387652397156e-02</internalNodes>
          <leafValues>
            4.2390838265419006e-01 -3.0651992559432983e-01</leafValues></_>
        <_>
          <internalNodes>
            0 -1 149 3.7486380897462368e-03</internalNodes>
          <leafValues>
            -2.4287198483943939e-01 3.4147500991821289e-01</leafValues></_>
        <_>
          <internalNodes>
            0 -1 21 6.5735587850213051e-04</internalNodes>
          <leafValues>
            8.6857654154300690e-02 -9.2743146419525146e-01</leafValues></_>
        <_>
          <internalNodes>
            0 -1 21 -4.1171448538079858e-04</internalNodes>
          <leafValues>
            -4.0525192022323608e-01 1.8586647510528564e-01</leafValues></_>
        <_>
          <internalNodes>
            0 -1 182 -1.5695599140599370e-03</internalNodes>
          <leafValues>
            3.2701256871223450e-01 -2.4209129810333252e-01</leafValues></_>
        <_>
          <internalNodes>
            0 -1 111 -8.0439336597919464e-03</internalNodes>
          <leafValues>
            -6.9908607006072998e-01 1.3897395133972168e-01</leafValues></_>
        <_>
          <internalNodes>
            0 -1 112 -6.5550738945603371e-03</internalNodes>
          <leafValues>
            4.2005029320716858e-01 -2.0486989617347717e-01</leafValues></_>
        <_>
          <internalNodes>
            0 -1 130 4.8894263803958893e-02</internalNodes>
          <leafValues>
            -8.7630651891231537e-02 6.8253976106643677e-01</leafValues></_>
        <_>
          <internalNodes>
            0 -1 186 1.4327289536595345e-02</internalNodes>
          <leafValues>
            -1.2152112275362015e-01 5.4890096187591553e-01</leafValues></_>
        <_>
          <internalNodes>
            0 -1 138 4.7765857743797824e-05</internalNodes>
          <leafValues>
            -2.2575798630714417e-01 3.4440812468528748e-01</leafValues></_></weakClassifiers></_>
    <!-- stage 16 -->
    <_>
      <maxWeakCount>11</maxWeakCount>
      <stageThreshold>-1.3890882730484009e+00</stageThreshold>
      <weakClassifiers>
        <_>
          <internalNodes>
            0 -1 120 2.9099773615598679e-02</internalNodes>
          <leafValues>
            -7.2934973239898682e-01 2.3809523880481720e-01</leafValues></_>
        <_>
          <internalNodes>
            0 -1 169 4.8630597302690148e-04</internalNodes>
          <leafValues>
            -3.6234733462333679e-01 2.0443515479564667e-01</leafValues></_>
        <_>
          <internalNodes>
            0 -1 22 9.4787608832120895e-03</internalNodes>
          <leafValues>
            -3.0833062529563904e-01 2.3703111708164215e-01</leafValues></_>
        <_>
          <internalNodes>
            0 -1 106 8.7593309581279755e-03</internalNodes>
          <leafValues>
            9.9376536905765533e-02 -7.6376831531524658e-01</leafValues></_>
        <_>
          <internalNodes>
            0 -1 66 -7.3846420273184776e-03</internalNodes>
          <leafValues>
            4.3080839514732361e-01 -1.7519949376583099e-01</leafValues></_>
        <_>
          <internalNodes>
            0 -1 102 1.5193495200946927e-03</internalNodes>
          <leafValues>
            -1.9704811275005341e-01 4.5511874556541443e-01</leafValues></_>
        <_>
          <internalNodes>
            0 -1 55 3.2367721199989319e-02</internalNodes>
          <leafValues>
            -1.5088924765586853e-01 4.9497342109680176e-01</leafValues></_>
        <_>
          <internalNodes>
            0 -1 69 -6.2047671526670456e-03</internalNodes>
          <leafValues>
            5.3341352939605713e-01 -1.6205613315105438e-01</leafValues></_>
        <_>
          <internalNodes>
            0 -1 48 -8.2688331604003906e-03</internalNodes>
          <leafValues>
            3.6185911297798157e-01 -2.0407928526401520e-01</leafValues></_>
        <_>
          <internalNodes>
            0 -1 132 8.8318879716098309e-04</internalNodes>
          <leafValues>
            2.1366837620735168e-01 -4.3765106797218323e-01</leafValues></_>
        <_>
          <internalNodes>
            0 -1 148 -2.2152499877847731e-04</internalNodes>
          <leafValues>
            -5.0644087791442871e-01 1.2718603014945984e-01</leafValues></_></weakClassifiers></_>
    <!-- stage 17 -->
    <_>
      <maxWeakCount>13</maxWeakCount>
      <stageThreshold>-1.4849864244461060e+00</stageThreshold>
      <weakClassifiers>
        <_>
          <internalNodes>
            0 -1 62 -6.6666379570960999e-02</internalNodes>
          <leafValues>
            -6.8493150174617767e-02 -7.3622405529022217e-01</leafValues></_>
        <_>
          <internalNodes>
            0 -1 53 -2.9216043913038447e-05</internalNodes>
          <leafValues>
            3.9236899465322495e-02 -5.2730405330657959e-01</leafValues></_>
        <_>
          <internalNodes>
            0 -1 109 7.3557263240218163e-03</internalNodes>
          <leafValues>
            9.8091177642345428e-02 -6.2224858999252319e-01</leafValues></_>
        <_>
          <internalNodes>
            0 -1 3 3.3659256994724274e-02</internalNodes>
          <leafValues>
            1.2838561832904816e-01 -6.2753242254257202e-01</leafValues></_>
        <_>
          <internalNodes>
            0 -1 38 -1.2992716801818460e-04</internalNodes>
          <leafValues>
            3.5011091828346252e-01 -2.1129675209522247e-01</leafValues></_>
        <_>
          <internalNodes>
            0 -1 36 5.2004866302013397e-03</internalNodes>
          <leafValues>
            -1.6191375255584717e-01 5.1322937011718750e-01</leafValues></_>
        <_>
          <internalNodes>
            0 -1 1 -2.9225140810012817e-02</internalNodes>
          <leafValues>
            2.8099158406257629e-01 -2.7059260010719299e-01</leafValues></_>
        <_>
          <internalNodes>
            0 -1 124 1.2797468807548285e-03</internalNodes>
          <leafValues>
            8.8628493249416351e-02 -8.7147355079650879e-01</leafValues></_>
        <_>
          <internalNodes>
            0 -1 173 1.4113278593868017e-03</internalNodes>
          <leafValues>
            -2.4251025915145874e-01 3.9856398105621338e-01</leafValues></_>
        <_>
          <internalNodes>
            0 -1 104 3.7073128623887897e-04</internalNodes>
          <leafValues>
            1.1032950878143311e-01 -6.6975027322769165e-01</leafValues></_>
        <_>
          <internalNodes>
            0 -1 79 -4.3693181942217052e-04</internalNodes>
          <leafValues>
            2.9044634103775024e-01 -2.5734695792198181e-01</leafValues></_>
        <_>
          <internalNodes>
            0 -1 78 1.4345063827931881e-03</internalNodes>
          <leafValues>
            -1.4425110816955566e-01 5.2006441354751587e-01</leafValues></_>
        <_>
          <internalNodes>
            0 -1 165 2.7618531021289527e-05</internalNodes>
          <leafValues>
            -3.3230221271514893e-01 2.3340941965579987e-01</leafValues></_></weakClassifiers></_>
    <!-- stage 18 -->
    <_>
      <maxWeakCount>13</maxWeakCount>
      <stageThreshold>-1.4923377037048340e+00</stageThreshold>
      <weakClassifiers>
        <_>
          <internalNodes>
            0 -1 135 2.1669256966561079e-03</internalNodes>
          <leafValues>
            -7.8947371244430542e-01 -3.7313431501388550e-01</leafValues></_>
        <_>
          <internalNodes>
            0 -1 65 -3.4652695059776306e-02</internalNodes>
          <leafValues>
            1.4905925095081329e-01 -4.0381541848182678e-01</leafValues></_>
        <_>
          <internalNodes>
            0 -1 167 7.9000387340784073e-03</internalNodes>
          <leafValues>
            -1.6921862959861755e-01 5.0630772113800049e-01</leafValues></_>
        <_>
          <internalNodes>
            0 -1 93 -3.7733139470219612e-03</internalNodes>
          <leafValues>
            2.7630698680877686e-01 -2.6437741518020630e-01</leafValues></_>
        <_>
          <internalNodes>
            0 -1 64 2.3855291306972504e-02</internalNodes>
          <leafValues>
            8.1007502973079681e-02 -8.8000494241714478e-01</leafValues></_>
        <_>
          <internalNodes>
            0 -1 41 -9.3041744548827410e-04</internalNodes>
          <leafValues>
            4.5744967460632324e-01 -1.6188733279705048e-01</leafValues></_>
        <_>
          <internalNodes>
            0 -1 54 1.0869852267205715e-03</internalNodes>
          <leafValues>
            -2.0955614745616913e-01 3.5884159803390503e-01</leafValues></_>
        <_>
          <internalNodes>
            0 -1 175 6.6552922362461686e-04</internalNodes>
          <leafValues>
            -1.6367387771606445e-01 4.0771481394767761e-01</leafValues></_>
        <_>
          <internalNodes>
            0 -1 189 4.6235406771302223e-03</internalNodes>
          <leafValues>
            -1.8723404407501221e-01 3.8289123773574829e-01</leafValues></_>
        <_>
          <internalNodes>
            0 -1 4 1.1527224443852901e-02</internalNodes>
          <leafValues>
            8.2719787955284119e-02 -7.1851944923400879e-01</leafValues></_>
        <_>
          <internalNodes>
            0 -1 139 -1.1394016910344362e-03</internalNodes>
          <leafValues>
            -3.6763069033622742e-01 1.7852301895618439e-01</leafValues></_>
        <_>
          <internalNodes>
            0 -1 25 2.1289031952619553e-02</internalNodes>
          <leafValues>
            1.0039321333169937e-01 -6.8201565742492676e-01</leafValues></_>
        <_>
          <internalNodes>
            0 -1 92 -2.0803349092602730e-02</internalNodes>
          <leafValues>
            -6.9482684135437012e-01 8.9943103492259979e-02</leafValues></_></weakClassifiers></_>
    <!-- stage 19 -->
    <_>
      <maxWeakCount>17</maxWeakCount>
      <stageThreshold>-1.6174557209014893e+00</stageThreshold>
      <weakClassifiers>
        <_>
          <internalNodes>
            0 -1 87 -5.4247617721557617e-01</internalNodes>
          <leafValues>
            8.6666667461395264e-01 -7.1502143144607544e-01</leafValues></_>
        <_>
          <internalNodes>
            0 -1 44 -2.3704577237367630e-02</internalNodes>
          <leafValues>
            5.8166784048080444e-01 -2.8526070713996887e-01</leafValues></_>
        <_>
          <internalNodes>
            0 -1 95 -3.1305814627557993e-03</internalNodes>
          <leafValues>
            -4.8242816329002380e-01 1.8477055430412292e-01</leafValues></_>
        <_>
          <internalNodes>
            0 -1 168 -1.6190458089113235e-02</internalNodes>
          <leafValues>
            2.5895807147026062e-01 -2.9801508784294128e-01</leafValues></_>
        <_>
          <internalNodes>
            0 -1 103 -8.6728890892118216e-04</internalNodes>
          <leafValues>
            5.0673878192901611e-01 -1.3296982645988464e-01</leafValues></_>
        <_>
          <internalNodes>
            0 -1 67 7.7466492075473070e-04</internalNodes>
          <leafValues>
            -2.2484409809112549e-01 3.7464755773544312e-01</leafValues></_>
        <_>
          <internalNodes>
            0 -1 15 6.1681482475250959e-04</internalNodes>
          <leafValues>
            1.5462689101696014e-01 -5.7059973478317261e-01</leafValues></_>
        <_>
          <internalNodes>
            0 -1 137 -2.0767262321896851e-04</internalNodes>
          <leafValues>
            2.8955778479576111e-01 -2.5400868058204651e-01</leafValues></_>
        <_>
          <internalNodes>
            0 -1 73 -1.5936809359118342e-04</internalNodes>
          <leafValues>
            2.6531741023063660e-01 -2.8817754983901978e-01</leafValues></_>
        <_>
          <internalNodes>
            0 -1 0 2.2231243550777435e-02</internalNodes>
          <leafValues>
            -1.2709598243236542e-01 6.1178916692733765e-01</leafValues></_>
        <_>
          <internalNodes>
            0 -1 121 1.2924906332045794e-03</internalNodes>
          <leafValues>
            1.7419999837875366e-01 -5.0640237331390381e-01</leafValues></_>
        <_>
          <internalNodes>
            0 -1 144 -6.6055998206138611e-02</internalNodes>
          <leafValues>
            4.3287506699562073e-01 -1.7821654677391052e-01</leafValues></_>
        <_>
          <internalNodes>
            0 -1 124 -6.3168467022478580e-04</internalNodes>
          <leafValues>
            -6.7569905519485474e-01 1.3136933743953705e-01</leafValues></_>
        <_>
          <internalNodes>
            0 -1 174 1.0390526149421930e-03</internalNodes>
          <leafValues>
            -1.7605872452259064e-01 5.3677278757095337e-01</leafValues></_>
        <_>
          <internalNodes>
            0 -1 159 1.0931037832051516e-03</internalNodes>
          <leafValues>
            1.4530384540557861e-01 -5.6831943988800049e-01</leafValues></_>
        <_>
          <internalNodes>
            0 -1 136 -2.7400452381698415e-05</internalNodes>
          <leafValues>
            3.2116308808326721e-01 -2.6282820105552673e-01</leafValues></_>
        <_>
          <internalNodes>
            0 -1 125 -8.6906424257904291e-04</internalNodes>
          <leafValues>
            -5.8965843915939331e-01 1.2968988716602325e-01</leafValues></_></weakClassifiers></_></stages>
  <features>
    <_>
      <rects>
        <_>
          0 1 22 3 -1.</_>
        <_>
          0 2 22 1 3.</_></rects>
      <tilted>0</tilted></_>
    <_>
      <rects>
        <_>
          0 2 14 9 -1.</_>
        <_>
          0 5 14 3 3.</_></rects>
      <tilted>0</tilted></_>
    <_>
      <rects>
        <_>
          0 3 4 6 -1.</_>
        <_>
          0 3 2 3 2.</_>
        <_>
          2 6 2 3 2.</_></rects>
      <tilted>0</tilted></_>
    <_>
      <rects>
        <_>
          0 12 6 12 -1.</_>
        <_>
          0 16 6 4 3.</_></rects>
      <tilted>0</tilted></_>
    <_>
      <rects>
        <_>
          0 13 3 6 -1.</_>
        <_>
          0 15 3 2 3.</_></rects>
      <tilted>0</tilted></_>
    <_>
      <rects>
        <_>
          0 14 2 8 -1.</_>
        <_>
          1 14 1 8 2.</_></rects>
      <tilted>0</tilted></_>
    <_>
      <rects>
        <_>
          0 14 4 4 -1.</_>
        <_>
          2 14 2 4 2.</_></rects>
      <tilted>0</tilted></_>
    <_>
      <rects>
        <_>
          0 15 3 2 -1.</_>
        <_>
          1 15 1 2 3.</_></rects>
      <tilted>0</tilted></_>
    <_>
      <rects>
        <_>
          0 15 1 8 -1.</_>
        <_>
          0 19 1 4 2.</_></rects>
      <tilted>0</tilted></_>
    <_>
      <rects>
        <_>
          0 16 2 2 -1.</_>
        <_>
          0 16 1 1 2.</_>
        <_>
          1 17 1 1 2.</_></rects>
      <tilted>0</tilted></_>
    <_>
      <rects>
        <_>
          0 16 3 2 -1.</_>
        <_>
          1 16 1 2 3.</_></rects>
      <tilted>0</tilted></_>
    <_>
      <rects>
        <_>
          0 18 1 6 -1.</_>
        <_>
          0 20 1 2 3.</_></rects>
      <tilted>0</tilted></_>
    <_>
      <rects>
        <_>
          0 18 2 6 -1.</_>
        <_>
          0 20 2 2 3.</_></rects>
      <tilted>0</tilted></_>
    <_>
      <rects>
        <_>
          0 19 4 5 -1.</_>
        <_>
          2 19 2 5 2.</_></rects>
      <tilted>0</tilted></_>
    <_>
      <rects>
        <_>
          0 19 24 5 -1.</_>
        <_>
          8 19 8 5 3.</_></rects>
      <tilted>0</tilted></_>
    <_>
      <rects>
        <_>
          0 20 1 2 -1.</_>
        <_>
          0 21 1 1 2.</_></rects>
      <tilted>0</tilted></_>
    <_>
      <rects>
        <_>
          0 20 8 4 -1.</_>
        <_>
          4 20 4 4 2.</_></rects>
      <tilted>0</tilted></_>
    <_>
      <rects>
        <_>
          0 20 24 4 -1.</_>
        <_>
          8 20 8 4 3.</_></rects>
      <tilted>0</tilted></_>
    <_>
      <rects>
        <_>
          0 22 2 1 -1.</_>
        <_>
          1 22 1 1 2.</_></rects>
      <tilted>0</tilted></_>
    <_>
      <rects>
        <_>
          0 22 8 2 -1.</_>
        <_>
          4 22 4 2 2.</_></rects>
      <tilted>0</tilted></_>
    <_>
      <rects>
        <_>
          0 22 14 2 -1.</_>
        <_>
          7 22 7 2 2.</_></rects>
      <tilted>0</tilted></_>
    <_>
      <rects>
        <_>
          0 23 2 1 -1.</_>
        <_>
          1 23 1 1 2.</_></rects>
      <tilted>0</tilted></_>
    <_>
      <rects>
        <_>
          1 0 10 5 -1.</_>
        <_>
          6 0 5 5 2.</_></rects>
      <tilted>0</tilted></_>
    <_>
      <rects>
        <_>
          1 1 6 9 -1.</_>
        <_>
          3 1 2 9 3.</_></rects>
      <tilted>0</tilted></_>
    <_>
      <rects>
        <_>
          1 1 15 3 -1.</_>
        <_>
          1 2 15 1 3.</_></rects>
      <tilted>0</tilted></_>
    <_>
      <rects>
        <_>
          1 2 1 21 -1.</_>
        <_>
          1 9 1 7 3.</_></rects>
      <tilted>0</tilted></_>
    <_>
      <rects>
        <_>
          1 14 3 4 -1.</_>
        <_>
          2 14 1 4 3.</_></rects>
      <tilted>0</tilted></_>
    <_>
      <rects>
        <_>
          1 15 3 1 -1.</_>
        <_>
          2 15 1 1 3.</_></rects>
      <tilted>0</tilted></_>
    <_>
      <rects>
        <_>
          1 19 2 4 -1.</_>
        <_>
          2 19 1 4 2.</_></rects>
      <tilted>0</tilted></_>
    <_>
      <rects>
        <_>
          1 22 2 2 -1.</_>
        <_>
          2 22 1 2 2.</_></rects>
      <tilted>0</tilted></_>
    <_>
      <rects>
        <_>
          1 22 3 2 -1.</_>
        <_>
          1 23 3 1 2.</_></rects>
      <tilted>0</tilted></_>
    <_>
      <rects>
        <_>
          2 0 11 3 -1.</_>
        <_>
          2 1 11 1 3.</_></rects>
      <tilted>0</tilted></_>
    <_>
      <rects>
        <_>
          2 0 13 12 -1.</_>
        <_>
          2 4 13 4 3.</_></rects>
      <tilted>0</tilted></_>
    <_>
      <rects>
        <_>
          2 0 18 3 -1.</_>
        <_>
          2 1 18 1 3.</_></rects>
      <tilted>0</tilted></_>
    <_>
      <rects>
        <_>
          2 1 10 2 -1.</_>
        <_>
          2 2 10 1 2.</_></rects>
      <tilted>0</tilted></_>
    <_>
      <rects>
        <_>
          2 2 3 2 -1.</_>
        <_>
          3 2 1 2 3.</_></rects>
      <tilted>0</tilted></_>
    <_>
      <rects>
        <_>
          2 2 2 10 -1.</_>
        <_>
          2 2 1 5 2.</_>
        <_>
          3 7 1 5 2.</_></rects>
      <tilted>0</tilted></_>
    <_>
      <rects>
        <_>
          2 2 4 3 -1.</_>
        <_>
          2 3 4 1 3.</_></rects>
      <tilted>0</tilted></_>
    <_>
      <rects>
        <_>
          2 6 2 2 -1.</_>
        <_>
          2 6 1 1 2.</_>
        <_>
          3 7 1 1 2.</_></rects>
      <tilted>0</tilted></_>
    <_>
      <rects>
        <_>
          2 6 3 8 -1.</_>
        <_>
          3 6 1 8 3.</_></rects>
      <tilted>0</tilted></_>
    <_>
      <rects>
        <_>
          2 6 20 6 -1.</_>
        <_>
          2 9 20 3 2.</_></rects>
      <tilted>0</tilted></_>
    <_>
      <rects>
        <_>
          2 7 3 1 -1.</_>
        <_>
          3 7 1 1 3.</_></rects>
      <tilted>0</tilted></_>
    <_>
      <rects>
        <_>
          2 7 16 16 -1.</_>
        <_>
          2 15 16 8 2.</_></rects>
      <tilted>0</tilted></_>
    <_>
      <rects>
        <_>
          2 16 2 2 -1.</_>
        <_>
          2 16 1 1 2.</_>
        <_>
          3 17 1 1 2.</_></rects>
      <tilted>0</tilted></_>
    <_>
      <rects>
        <_>
          2 23 22 1 -1.</_>
        <_>
          13 23 11 1 2.</_></rects>
      <tilted>0</tilted></_>
    <_>
      <rects>
        <_>
          3 0 11 9 -1.</_>
        <_>
          3 3 11 3 3.</_></rects>
      <tilted>0</tilted></_>
    <_>
      <rects>
        <_>
          3 1 6 2 -1.</_>
        <_>
          3 2 6 1 2.</_></rects>
      <tilted>0</tilted></_>
    <_>
      <rects>
        <_>
          3 6 2 2 -1.</_>
        <_>
          3 6 1 1 2.</_>
        <_>
          4 7 1 1 2.</_></rects>
      <tilted>0</tilted></_>
    <_>
      <rects>
        <_>
          3 8 6 10 -1.</_>
        <_>
          5 8 2 10 3.</_></rects>
      <tilted>0</tilted></_>
    <_>
      <rects>
        <_>
          3 8 18 16 -1.</_>
        <_>
          3 16 18 8 2.</_></rects>
      <tilted>0</tilted></_>
    <_>
      <rects>
        <_>
          3 10 2 2 -1.</_>
        <_>
          3 10 1 1 2.</_>
        <_>
          4 11 1 1 2.</_></rects>
      <tilted>0</tilted></_>
    <_>
      <rects>
        <_>
          3 14 3 2 -1.</_>
        <_>
          4 14 1 2 3.</_></rects>
      <tilted>0</tilted></_>
    <_>
      <rects>
        <_>
          3 21 2 3 -1.</_>
        <_>
          4 21 1 3 2.</_></rects>
      <tilted>0</tilted></_>
    <_>
      <rects>
        <_>
          3 23 2 1 -1.</_>
        <_>
          4 23 1 1 2.</_></rects>
      <tilted>0</tilted></_>
    <_>
      <rects>
        <_>
          4 0 3 3 -1.</_>
        <_>
          5 0 1 3 3.</_></rects>
      <tilted>0</tilted></_>
    <_>
      <rects>
        <_>
          4 0 14 3 -1.</_>
        <_>
          4 1 14 1 3.</_></rects>
      <tilted>0</tilted></_>
    <_>
      <rects>
        <_>
          4 0 19 2 -1.</_>
        <_>
          4 1 19 1 2.</_></rects>
      <tilted>0</tilted></_>
    <_>
      <rects>
        <_>
          4 2 2 1 -1.</_>
        <_>
          5 2 1 1 2.</_></rects>
      <tilted>0</tilted></_>
    <_>
      <rects>
        <_>
          4 5 3 19 -1.</_>
        <_>
          5 5 1 19 3.</_></rects>
      <tilted>0</tilted></_>
    <_>
      <rects>
        <_>
          4 5 18 12 -1.</_>
        <_>
          4 9 18 4 3.</_></rects>
      <tilted>0</tilted></_>
    <_>
      <rects>
        <_>
          4 8 15 3 -1.</_>
        <_>
          4 9 15 1 3.</_></rects>
      <tilted>0</tilted></_>
    <_>
      <rects>
        <_>
          4 9 2 2 -1.</_>
        <_>
          4 9 1 1 2.</_>
        <_>
          5 10 1 1 2.</_></rects>
      <tilted>0</tilted></_>
    <_>
      <rects>
        <_>
          4 11 13 6 -1.</_>
        <_>
          4 13 13 2 3.</_></rects>
      <tilted>0</tilted></_>
    <_>
      <rects>
        <_>
          4 14 18 10 -1.</_>
        <_>
          4 19 18 5 2.</_></rects>
      <tilted>0</tilted></_>
    <_>
      <rects>
        <_>
          4 18 14 2 -1.</_>
        <_>
          11 18 7 2 2.</_></rects>
      <tilted>0</tilted></_>
    <_>
      <rects>
        <_>
          4 18 13 6 -1.</_>
        <_>
          4 21 13 3 2.</_></rects>
      <tilted>0</tilted></_>
    <_>
      <rects>
        <_>
          4 18 14 3 -1.</_>
        <_>
          4 19 14 1 3.</_></rects>
      <tilted>0</tilted></_>
    <_>
      <rects>
        <_>
          4 19 4 2 -1.</_>
        <_>
          4 19 2 1 2.</_>
        <_>
          6 20 2 1 2.</_></rects>
      <tilted>0</tilted></_>
    <_>
      <rects>
        <_>
          4 23 4 1 -1.</_>
        <_>
          6 23 2 1 2.</_></rects>
      <tilted>0</tilted></_>
    <_>
      <rects>
        <_>
          5 0 6 2 -1.</_>
        <_>
          5 1 6 1 2.</_></rects>
      <tilted>0</tilted></_>
    <_>
      <rects>
        <_>
          5 0 14 8 -1.</_>
        <_>
          5 4 14 4 2.</_></rects>
      <tilted>0</tilted></_>
    <_>
      <rects>
        <_>
          5 0 17 3 -1.</_>
        <_>
          5 1 17 1 3.</_></rects>
      <tilted>0</tilted></_>
    <_>
      <rects>
        <_>
          5 0 19 24 -1.</_>
        <_>
          5 12 19 12 2.</_></rects>
      <tilted>0</tilted></_>
    <_>
      <rects>
        <_>
          5 1 1 3 -1.</_>
        <_>
          5 2 1 1 3.</_></rects>
      <tilted>0</tilted></_>
    <_>
      <rects>
        <_>
          5 4 17 20 -1.</_>
        <_>
          5 14 17 10 2.</_></rects>
      <tilted>0</tilted></_>
    <_>
      <rects>
        <_>
          5 7 15 6 -1.</_>
        <_>
          5 9 15 2 3.</_></rects>
      <tilted>0</tilted></_>
    <_>
      <rects>
        <_>
          5 11 14 3 -1.</_>
        <_>
          5 12 14 1 3.</_></rects>
      <tilted>0</tilted></_>
    <_>
      <rects>
        <_>
          5 13 3 3 -1.</_>
        <_>
          5 14 3 1 3.</_></rects>
      <tilted>0</tilted></_>
    <_>
      <rects>
        <_>
          5 16 2 3 -1.</_>
        <_>
          6 16 1 3 2.</_></rects>
      <tilted>0</tilted></_>
    <_>
      <rects>
        <_>
          5 17 3 3 -1.</_>
        <_>
          6 17 1 3 3.</_></rects>
      <tilted>0</tilted></_>
    <_>
      <rects>
        <_>
          5 18 17 3 -1.</_>
        <_>
          5 19 17 1 3.</_></rects>
      <tilted>0</tilted></_>
    <_>
      <rects>
        <_>
          5 19 2 2 -1.</_>
        <_>
          5 19 1 1 2.</_>
        <_>
          6 20 1 1 2.</_></rects>
      <tilted>0</tilted></_>
    <_>
      <rects>
        <_>
          5 21 2 2 -1.</_>
        <_>
          5 21 1 1 2.</_>
        <_>
          6 22 1 1 2.</_></rects>
      <tilted>0</tilted></_>
    <_>
      <rects>
        <_>
          5 23 2 1 -1.</_>
        <_>
          6 23 1 1 2.</_></rects>
      <tilted>0</tilted></_>
    <_>
      <rects>
        <_>
          6 0 7 6 -1.</_>
        <_>
          6 3 7 3 2.</_></rects>
      <tilted>0</tilted></_>
    <_>
      <rects>
        <_>
          6 0 17 2 -1.</_>
        <_>
          6 1 17 1 2.</_></rects>
      <tilted>0</tilted></_>
    <_>
      <rects>
        <_>
          6 1 10 3 -1.</_>
        <_>
          6 2 10 1 3.</_></rects>
      <tilted>0</tilted></_>
    <_>
      <rects>
        <_>
          6 1 14 22 -1.</_>
        <_>
          6 12 14 11 2.</_></rects>
      <tilted>0</tilted></_>
    <_>
      <rects>
        <_>
          6 4 15 15 -1.</_>
        <_>
          6 9 15 5 3.</_></rects>
      <tilted>0</tilted></_>
    <_>
      <rects>
        <_>
          6 5 2 2 -1.</_>
        <_>
          6 5 1 1 2.</_>
        <_>
          7 6 1 1 2.</_></rects>
      <tilted>0</tilted></_>
    <_>
      <rects>
        <_>
          6 6 15 9 -1.</_>
        <_>
          6 9 15 3 3.</_></rects>
      <tilted>0</tilted></_>
    <_>
      <rects>
        <_>
          6 11 18 10 -1.</_>
        <_>
          6 11 9 5 2.</_>
        <_>
          15 16 9 5 2.</_></rects>
      <tilted>0</tilted></_>
    <_>
      <rects>
        <_>
          6 12 10 8 -1.</_>
        <_>
          6 12 5 4 2.</_>
        <_>
          11 16 5 4 2.</_></rects>
      <tilted>0</tilted></_>
    <_>
      <rects>
        <_>
          6 16 5 6 -1.</_>
        <_>
          6 18 5 2 3.</_></rects>
      <tilted>0</tilted></_>
    <_>
      <rects>
        <_>
          6 21 8 3 -1.</_>
        <_>
          6 22 8 1 3.</_></rects>
      <tilted>0</tilted></_>
    <_>
      <rects>
        <_>
          6 22 14 1 -1.</_>
        <_>
          13 22 7 1 2.</_></rects>
      <tilted>0</tilted></_>
    <_>
      <rects>
        <_>
          7 0 4 3 -1.</_>
        <_>
          7 1 4 1 3.</_></rects>
      <tilted>0</tilted></_>
    <_>
      <rects>
        <_>
          7 8 3 3 -1.</_>
        <_>
          7 9 3 1 3.</_></rects>
      <tilted>0</tilted></_>
    <_>
      <rects>
        <_>
          7 8 11 2 -1.</_>
        <_>
          7 9 11 1 2.</_></rects>
      <tilted>0</tilted></_>
    <_>
      <rects>
        <_>
          7 8 13 2 -1.</_>
        <_>
          7 9 13 1 2.</_></rects>
      <tilted>0</tilted></_>
    <_>
      <rects>
        <_>
          7 10 2 14 -1.</_>
        <_>
          7 17 2 7 2.</_></rects>
      <tilted>0</tilted></_>
    <_>
      <rects>
        <_>
          7 15 2 3 -1.</_>
        <_>
          8 15 1 3 2.</_></rects>
      <tilted>0</tilted></_>
    <_>
      <rects>
        <_>
          7 18 9 2 -1.</_>
        <_>
          7 19 9 1 2.</_></rects>
      <tilted>0</tilted></_>
    <_>
      <rects>
        <_>
          7 19 1 3 -1.</_>
        <_>
          7 20 1 1 3.</_></rects>
      <tilted>0</tilted></_>
    <_>
      <rects>
        <_>
          7 23 3 1 -1.</_>
        <_>
          8 23 1 1 3.</_></rects>
      <tilted>0</tilted></_>
    <_>
      <rects>
        <_>
          8 0 4 3 -1.</_>
        <_>
          10 0 2 3 2.</_></rects>
      <tilted>0</tilted></_>
    <_>
      <rects>
        <_>
          8 0 6 3 -1.</_>
        <_>
          10 0 2 3 3.</_></rects>
      <tilted>0</tilted></_>
    <_>
      <rects>
        <_>
          8 0 7 2 -1.</_>
        <_>
          8 1 7 1 2.</_></rects>
      <tilted>0</tilted></_>
    <_>
      <rects>
        <_>
          8 1 7 3 -1.</_>
        <_>
          8 2 7 1 3.</_></rects>
      <tilted>0</tilted></_>
    <_>
      <rects>
        <_>
          8 2 4 10 -1.</_>
        <_>
          8 2 2 5 2.</_>
        <_>
          10 7 2 5 2.</_></rects>
      <tilted>0</tilted></_>
    <_>
      <rects>
        <_>
          8 3 11 21 -1.</_>
        <_>
          8 10 11 7 3.</_></rects>
      <tilted>0</tilted></_>
    <_>
      <rects>
        <_>
          8 6 6 4 -1.</_>
        <_>
          8 6 3 2 2.</_>
        <_>
          11 8 3 2 2.</_></rects>
      <tilted>0</tilted></_>
    <_>
      <rects>
        <_>
          8 13 8 3 -1.</_>
        <_>
          8 14 8 1 3.</_></rects>
      <tilted>0</tilted></_>
    <_>
      <rects>
        <_>
          8 21 3 3 -1.</_>
        <_>
          8 22 3 1 3.</_></rects>
      <tilted>0</tilted></_>
    <_>
      <rects>
        <_>
          8 23 3 1 -1.</_>
        <_>
          9 23 1 1 3.</_></rects>
      <tilted>0</tilted></_>
    <_>
      <rects>
        <_>
          9 0 6 3 -1.</_>
        <_>
          11 0 2 3 3.</_></rects>
      <tilted>0</tilted></_>
    <_>
      <rects>
        <_>
          9 0 4 10 -1.</_>
        <_>
          9 0 2 5 2.</_>
        <_>
          11 5 2 5 2.</_></rects>
      <tilted>0</tilted></_>
    <_>
      <rects>
        <_>
          9 0 3 2 -1.</_>
        <_>
          9 1 3 1 2.</_></rects>
      <tilted>0</tilted></_>
    <_>
      <rects>
        <_>
          9 0 9 22 -1.</_>
        <_>
          9 11 9 11 2.</_></rects>
      <tilted>0</tilted></_>
    <_>
      <rects>
        <_>
          9 1 6 2 -1.</_>
        <_>
          11 1 2 2 3.</_></rects>
      <tilted>0</tilted></_>
    <_>
      <rects>
        <_>
          9 1 10 3 -1.</_>
        <_>
          9 2 10 1 3.</_></rects>
      <tilted>0</tilted></_>
    <_>
      <rects>
        <_>
          9 2 4 1 -1.</_>
        <_>
          11 2 2 1 2.</_></rects>
      <tilted>0</tilted></_>
    <_>
      <rects>
        <_>
          9 20 2 2 -1.</_>
        <_>
          9 20 1 1 2.</_>
        <_>
          10 21 1 1 2.</_></rects>
      <tilted>0</tilted></_>
    <_>
      <rects>
        <_>
          9 21 2 3 -1.</_>
        <_>
          9 22 2 1 3.</_></rects>
      <tilted>0</tilted></_>
    <_>
      <rects>
        <_>
          9 22 3 2 -1.</_>
        <_>
          10 22 1 2 3.</_></rects>
      <tilted>0</tilted></_>
    <_>
      <rects>
        <_>
          10 1 2 3 -1.</_>
        <_>
          11 1 1 3 2.</_></rects>
      <tilted>0</tilted></_>
    <_>
      <rects>
        <_>
          10 2 2 2 -1.</_>
        <_>
          10 2 1 1 2.</_>
        <_>
          11 3 1 1 2.</_></rects>
      <tilted>0</tilted></_>
    <_>
      <rects>
        <_>
          10 8 4 3 -1.</_>
        <_>
          12 8 2 3 2.</_></rects>
      <tilted>0</tilted></_>
    <_>
      <rects>
        <_>
          10 11 2 10 -1.</_>
        <_>
          10 16 2 5 2.</_></rects>
      <tilted>0</tilted></_>
    <_>
      <rects>
        <_>
          10 11 7 6 -1.</_>
        <_>
          10 13 7 2 3.</_></rects>
      <tilted>0</tilted></_>
    <_>
      <rects>
        <_>
          10 11 12 6 -1.</_>
        <_>
          10 13 12 2 3.</_></rects>
      <tilted>0</tilted></_>
    <_>
      <rects>
        <_>
          10 13 1 8 -1.</_>
        <_>
          10 17 1 4 2.</_></rects>
      <tilted>0</tilted></_>
    <_>
      <rects>
        <_>
          10 21 4 2 -1.</_>
        <_>
          12 21 2 2 2.</_></rects>
      <tilted>0</tilted></_>
    <_>
      <rects>
        <_>
          10 23 2 1 -1.</_>
        <_>
          11 23 1 1 2.</_></rects>
      <tilted>0</tilted></_>
    <_>
      <rects>
        <_>
          10 23 3 1 -1.</_>
        <_>
          11 23 1 1 3.</_></rects>
      <tilted>0</tilted></_>
    <_>
      <rects>
        <_>
          11 0 1 3 -1.</_>
        <_>
          11 1 1 1 3.</_></rects>
      <tilted>0</tilted></_>
    <_>
      <rects>
        <_>
          11 7 2 2 -1.</_>
        <_>
          11 7 1 1 2.</_>
        <_>
          12 8 1 1 2.</_></rects>
      <tilted>0</tilted></_>
    <_>
      <rects>
        <_>
          11 14 4 2 -1.</_>
        <_>
          11 14 2 1 2.</_>
        <_>
          13 15 2 1 2.</_></rects>
      <tilted>0</tilted></_>
    <_>
      <rects>
        <_>
          11 20 2 2 -1.</_>
        <_>
          11 20 1 1 2.</_>
        <_>
          12 21 1 1 2.</_></rects>
      <tilted>0</tilted></_>
    <_>
      <rects>
        <_>
          11 22 6 2 -1.</_>
        <_>
          13 22 2 2 3.</_></rects>
      <tilted>0</tilted></_>
    <_>
      <rects>
        <_>
          11 23 2 1 -1.</_>
        <_>
          12 23 1 1 2.</_></rects>
      <tilted>0</tilted></_>
    <_>
      <rects>
        <_>
          11 23 6 1 -1.</_>
        <_>
          13 23 2 1 3.</_></rects>
      <tilted>0</tilted></_>
    <_>
      <rects>
        <_>
          11 23 9 1 -1.</_>
        <_>
          14 23 3 1 3.</_></rects>
      <tilted>0</tilted></_>
    <_>
      <rects>
        <_>
          12 0 10 24 -1.</_>
        <_>
          12 12 10 12 2.</_></rects>
      <tilted>0</tilted></_>
    <_>
      <rects>
        <_>
          12 0 11 24 -1.</_>
        <_>
          12 8 11 8 3.</_></rects>
      <tilted>0</tilted></_>
    <_>
      <rects>
        <_>
          12 8 1 3 -1.</_>
        <_>
          12 9 1 1 3.</_></rects>
      <tilted>0</tilted></_>
    <_>
      <rects>
        <_>
          12 10 6 2 -1.</_>
        <_>
          14 10 2 2 3.</_></rects>
      <tilted>0</tilted></_>
    <_>
      <rects>
        <_>
          12 14 9 10 -1.</_>
        <_>
          12 19 9 5 2.</_></rects>
      <tilted>0</tilted></_>
    <_>
      <rects>
        <_>
          12 23 3 1 -1.</_>
        <_>
          13 23 1 1 3.</_></rects>
      <tilted>0</tilted></_>
    <_>
      <rects>
        <_>
          13 0 5 2 -1.</_>
        <_>
          13 1 5 1 2.</_></rects>
      <tilted>0</tilted></_>
    <_>
      <rects>
        <_>
          13 0 7 2 -1.</_>
        <_>
          13 1 7 1 2.</_></rects>
      <tilted>0</tilted></_>
    <_>
      <rects>
        <_>
          14 2 2 2 -1.</_>
        <_>
          14 2 1 1 2.</_>
        <_>
          15 3 1 1 2.</_></rects>
      <tilted>0</tilted></_>
    <_>
      <rects>
        <_>
          14 6 2 2 -1.</_>
        <_>
          14 7 2 1 2.</_></rects>
      <tilted>0</tilted></_>
    <_>
      <rects>
        <_>
          14 9 8 8 -1.</_>
        <_>
          14 13 8 4 2.</_></rects>
      <tilted>0</tilted></_>
    <_>
      <rects>
        <_>
          14 10 6 2 -1.</_>
        <_>
          17 10 3 2 2.</_></rects>
      <tilted>0</tilted></_>
    <_>
      <rects>
        <_>
          14 22 10 2 -1.</_>
        <_>
          19 22 5 2 2.</_></rects>
      <tilted>0</tilted></_>
    <_>
      <rects>
        <_>
          15 5 4 6 -1.</_>
        <_>
          15 7 4 2 3.</_></rects>
      <tilted>0</tilted></_>
    <_>
      <rects>
        <_>
          15 18 2 2 -1.</_>
        <_>
          16 18 1 2 2.</_></rects>
      <tilted>0</tilted></_>
    <_>
      <rects>
        <_>
          16 21 2 1 -1.</_>
        <_>
          17 21 1 1 2.</_></rects>
      <tilted>0</tilted></_>
    <_>
      <rects>
        <_>
          16 23 6 1 -1.</_>
        <_>
          18 23 2 1 3.</_></rects>
      <tilted>0</tilted></_>
    <_>
      <rects>
        <_>
          17 22 2 2 -1.</_>
        <_>
          18 22 1 2 2.</_></rects>
      <tilted>0</tilted></_>
    <_>
      <rects>
        <_>
          18 0 1 24 -1.</_>
        <_>
          18 12 1 12 2.</_></rects>
      <tilted>0</tilted></_>
    <_>
      <rects>
        <_>
          18 1 2 2 -1.</_>
        <_>
          18 1 1 1 2.</_>
        <_>
          19 2 1 1 2.</_></rects>
      <tilted>0</tilted></_>
    <_>
      <rects>
        <_>
          18 5 6 14 -1.</_>
        <_>
          21 5 3 14 2.</_></rects>
      <tilted>0</tilted></_>
    <_>
      <rects>
        <_>
          18 15 1 3 -1.</_>
        <_>
          18 16 1 1 3.</_></rects>
      <tilted>0</tilted></_>
    <_>
      <rects>
        <_>
          18 22 2 2 -1.</_>
        <_>
          19 22 1 2 2.</_></rects>
      <tilted>0</tilted></_>
    <_>
      <rects>
        <_>
          19 2 2 2 -1.</_>
        <_>
          19 2 1 1 2.</_>
        <_>
          20 3 1 1 2.</_></rects>
      <tilted>0</tilted></_>
    <_>
      <rects>
        <_>
          19 9 4 6 -1.</_>
        <_>
          19 9 2 3 2.</_>
        <_>
          21 12 2 3 2.</_></rects>
      <tilted>0</tilted></_>
    <_>
      <rects>
        <_>
          19 12 3 10 -1.</_>
        <_>
          19 17 3 5 2.</_></rects>
      <tilted>0</tilted></_>
    <_>
      <rects>
        <_>
          19 15 3 1 -1.</_>
        <_>
          20 15 1 1 3.</_></rects>
      <tilted>0</tilted></_>
    <_>
      <rects>
        <_>
          19 15 1 3 -1.</_>
        <_>
          19 16 1 1 3.</_></rects>
      <tilted>0</tilted></_>
    <_>
      <rects>
        <_>
          19 15 2 3 -1.</_>
        <_>
          19 16 2 1 3.</_></rects>
      <tilted>0</tilted></_>
    <_>
      <rects>
        <_>
          19 17 2 2 -1.</_>
        <_>
          19 18 2 1 2.</_></rects>
      <tilted>0</tilted></_>
    <_>
      <rects>
        <_>
          19 17 4 2 -1.</_>
        <_>
          19 17 2 1 2.</_>
        <_>
          21 18 2 1 2.</_></rects>
      <tilted>0</tilted></_>
    <_>
      <rects>
        <_>
          20 3 3 1 -1.</_>
        <_>
          21 3 1 1 3.</_></rects>
      <tilted>0</tilted></_>
    <_>
      <rects>
        <_>
          20 5 2 4 -1.</_>
        <_>
          20 5 1 2 2.</_>
        <_>
          21 7 1 2 2.</_></rects>
      <tilted>0</tilted></_>
    <_>
      <rects>
        <_>
          20 10 4 2 -1.</_>
        <_>
          20 10 2 1 2.</_>
        <_>
          22 11 2 1 2.</_></rects>
      <tilted>0</tilted></_>
    <_>
      <rects>
        <_>
          20 18 4 2 -1.</_>
        <_>
          22 18 2 2 2.</_></rects>
      <tilted>0</tilted></_>
    <_>
      <rects>
        <_>
          20 21 2 3 -1.</_>
        <_>
          21 21 1 3 2.</_></rects>
      <tilted>0</tilted></_>
    <_>
      <rects>
        <_>
          20 22 4 2 -1.</_>
        <_>
          22 22 2 2 2.</_></rects>
      <tilted>0</tilted></_>
    <_>
      <rects>
        <_>
          21 9 3 12 -1.</_>
        <_>
          22 9 1 12 3.</_></rects>
      <tilted>0</tilted></_>
    <_>
      <rects>
        <_>
          21 10 3 1 -1.</_>
        <_>
          22 10 1 1 3.</_></rects>
      <tilted>0</tilted></_>
    <_>
      <rects>
        <_>
          21 10 3 3 -1.</_>
        <_>
          22 10 1 3 3.</_></rects>
      <tilted>0</tilted></_>
    <_>
      <rects>
        <_>
          21 13 2 2 -1.</_>
        <_>
          22 13 1 2 2.</_></rects>
      <tilted>0</tilted></_>
    <_>
      <rects>
        <_>
          21 16 3 3 -1.</_>
        <_>
          21 17 3 1 3.</_></rects>
      <tilted>0</tilted></_>
    <_>
      <rects>
        <_>
          21 22 2 2 -1.</_>
        <_>
          22 22 1 2 2.</_></rects>
      <tilted>0</tilted></_>
    <_>
      <rects>
        <_>
          22 0 2 22 -1.</_>
        <_>
          22 0 1 11 2.</_>
        <_>
          23 11 1 11 2.</_></rects>
      <tilted>0</tilted></_>
    <_>
      <rects>
        <_>
          22 2 2 20 -1.</_>
        <_>
          22 2 1 10 2.</_>
        <_>
          23 12 1 10 2.</_></rects>
      <tilted>0</tilted></_>
    <_>
      <rects>
        <_>
          22 10 2 2 -1.</_>
        <_>
          22 10 1 1 2.</_>
        <_>
          23 11 1 1 2.</_></rects>
      <tilted>0</tilted></_>
    <_>
      <rects>
        <_>
          22 13 2 6 -1.</_>
        <_>
          23 13 1 6 2.</_></rects>
      <tilted>0</tilted></_>
    <_>
      <rects>
        <_>
          22 15 2 5 -1.</_>
        <_>
          23 15 1 5 2.</_></rects>
      <tilted>0</tilted></_>
    <_>
      <rects>
        <_>
          22 18 2 2 -1.</_>
        <_>
          22 19 2 1 2.</_></rects>
      <tilted>0</tilted></_>
    <_>
      <rects>
        <_>
          22 20 2 2 -1.</_>
        <_>
          23 20 1 2 2.</_></rects>
      <tilted>0</tilted></_>
    <_>
      <rects>
        <_>
          22 21 2 2 -1.</_>
        <_>
          23 21 1 2 2.</_></rects>
      <tilted>0</tilted></_>
    <_>
      <rects>
        <_>
          22 22 1 2 -1.</_>
        <_>
          22 23 1 1 2.</_></rects>
      <tilted>0</tilted></_>
    <_>
      <rects>
        <_>
          22 23 2 1 -1.</_>
        <_>
          23 23 1 1 2.</_></rects>
      <tilted>0</tilted></_>
    <_>
      <rects>
        <_>
          23 9 1 15 -1.</_>
        <_>
          23 14 1 5 3.</_></rects>
      <tilted>0</tilted></_>
    <_>
      <rects>
        <_>
          23 17 1 6 -1.</_>
        <_>
          23 20 1 3 2.</_></rects>
      <tilted>0</tilted></_></features></cascade>
</opencv_storage>
