<?xml version="1.0"?>
<opencv_storage>
<stage7>
  <maxWeakCount>7</maxWeakCount>
  <stageThreshold>-1.6240533590316772e+00</stageThreshold>
  <weakClassifiers>
    <_>
      <internalNodes>
        0 -1 70555 -1.4789180568186566e-05</internalNodes>
      <leafValues>
        -3.4513273835182190e-01 -8.3590960502624512e-01</leafValues></_>
    <_>
      <internalNodes>
        0 -1 88545 1.4147565707389731e-05</internalNodes>
      <leafValues>
        -5.3281092643737793e-01 1.8255890905857086e-01</leafValues></_>
    <_>
      <internalNodes>
        0 -1 151863 1.5954990885802545e-05</internalNodes>
      <leafValues>
        -4.5673945546150208e-01 3.2327896356582642e-01</leafValues></_>
    <_>
      <internalNodes>
        0 -1 121339 -1.5888051129877567e-03</internalNodes>
      <leafValues>
        -5.5439591407775879e-01 2.5604456663131714e-01</leafValues></_>
    <_>
      <internalNodes>
        0 -1 72151 -1.6500690951943398e-02</internalNodes>
      <leafValues>
        7.3565560579299927e-01 -1.6485743224620819e-01</leafValues></_>
    <_>
      <internalNodes>
        0 -1 51218 1.9133653040626086e-05</internalNodes>
      <leafValues>
        -3.9394503831863403e-01 3.7185996770858765e-01</leafValues></_>
    <_>
      <internalNodes>
        0 -1 11080 -8.5318284109234810e-03</internalNodes>
      <leafValues>
        5.2709430456161499e-01 -2.3121832311153412e-01</leafValues></_></weakClassifiers></stage7>
</opencv_storage>
