<?xml version="1.0"?>
<opencv_storage>
<stage9>
  <maxWeakCount>12</maxWeakCount>
  <stageThreshold>-1.5516327619552612e+00</stageThreshold>
  <weakClassifiers>
    <_>
      <internalNodes>
        0 -1 64230 -4.8368978500366211e-01</internalNodes>
      <leafValues>
        1.1494252830743790e-02 -7.5114363431930542e-01</leafValues></_>
    <_>
      <internalNodes>
        0 -1 11059 -4.0090996772050858e-03</internalNodes>
      <leafValues>
        2.5345140695571899e-01 -4.3467628955841064e-01</leafValues></_>
    <_>
      <internalNodes>
        0 -1 13050 -4.5866323634982109e-03</internalNodes>
      <leafValues>
        1.6747188568115234e-01 -5.4871082305908203e-01</leafValues></_>
    <_>
      <internalNodes>
        0 -1 11500 4.1971877217292786e-03</internalNodes>
      <leafValues>
        1.4141869544982910e-01 -6.9224971532821655e-01</leafValues></_>
    <_>
      <internalNodes>
        0 -1 160690 -7.3559704469516873e-04</internalNodes>
      <leafValues>
        4.3876186013221741e-01 -2.1460673213005066e-01</leafValues></_>
    <_>
      <internalNodes>
        0 -1 70701 -3.9206811925396323e-04</internalNodes>
      <leafValues>
        -5.0361198186874390e-01 2.0966593921184540e-01</leafValues></_>
    <_>
      <internalNodes>
        0 -1 125801 2.6544146239757538e-03</internalNodes>
      <leafValues>
        1.3859818875789642e-01 -6.5284544229507446e-01</leafValues></_>
    <_>
      <internalNodes>
        0 -1 137458 3.9105657488107681e-03</internalNodes>
      <leafValues>
        1.6226182878017426e-01 -6.6244000196456909e-01</leafValues></_>
    <_>
      <internalNodes>
        0 -1 70270 1.4779709999857005e-05</internalNodes>
      <leafValues>
        -3.3453452587127686e-01 3.2623317837715149e-01</leafValues></_>
    <_>
      <internalNodes>
        0 -1 13103 -1.2238570488989353e-02</internalNodes>
      <leafValues>
        1.5719056129455566e-01 -6.6472649574279785e-01</leafValues></_>
    <_>
      <internalNodes>
        0 -1 61170 -8.8490225374698639e-02</internalNodes>
      <leafValues>
        5.0125312805175781e-01 -2.3613552749156952e-01</leafValues></_>
    <_>
      <internalNodes>
        0 -1 154758 -1.7730960098560899e-04</internalNodes>
      <leafValues>
        4.0750211477279663e-01 -2.5989851355552673e-01</leafValues></_></weakClassifiers></stage9>
</opencv_storage>
