<?xml version="1.0"?>
<opencv_storage>
<stage8>
  <maxWeakCount>10</maxWeakCount>
  <stageThreshold>-1.6194860935211182e+00</stageThreshold>
  <weakClassifiers>
    <_>
      <internalNodes>
        0 -1 86178 2.8683409094810486e-02</internalNodes>
      <leafValues>
        -7.4688059091567993e-01 3.1034481525421143e-01</leafValues></_>
    <_>
      <internalNodes>
        0 -1 157296 -7.5265555642545223e-04</internalNodes>
      <leafValues>
        2.6864850521087646e-01 -4.1739600896835327e-01</leafValues></_>
    <_>
      <internalNodes>
        0 -1 157268 6.3150119967758656e-04</internalNodes>
      <leafValues>
        -2.4358581006526947e-01 4.6999374032020569e-01</leafValues></_>
    <_>
      <internalNodes>
        0 -1 60422 -2.2121539586805739e-05</internalNodes>
      <leafValues>
        2.3989550769329071e-01 -4.4961073994636536e-01</leafValues></_>
    <_>
      <internalNodes>
        0 -1 56140 -6.4016907708719373e-04</internalNodes>
      <leafValues>
        5.5621230602264404e-01 -1.9151115417480469e-01</leafValues></_>
    <_>
      <internalNodes>
        0 -1 159726 4.5645615318790078e-04</internalNodes>
      <leafValues>
        -6.2335050106048584e-01 1.7550782859325409e-01</leafValues></_>
    <_>
      <internalNodes>
        0 -1 89914 -4.9834060482680798e-03</internalNodes>
      <leafValues>
        -8.3067709207534790e-01 1.5437182784080505e-01</leafValues></_>
    <_>
      <internalNodes>
        0 -1 159052 -2.1044476306997240e-04</internalNodes>
      <leafValues>
        3.5577201843261719e-01 -2.9322603344917297e-01</leafValues></_>
    <_>
      <internalNodes>
        0 -1 162321 2.2748175542801619e-03</internalNodes>
      <leafValues>
        1.8523624539375305e-01 -6.2894695997238159e-01</leafValues></_>
    <_>
      <internalNodes>
        0 -1 134631 -1.4822775483480655e-05</internalNodes>
      <leafValues>
        3.3228528499603271e-01 -3.1148058176040649e-01</leafValues></_></weakClassifiers></stage8>
</opencv_storage>
