<?xml version="1.0"?>
<opencv_storage>
<stage13>
  <maxWeakCount>13</maxWeakCount>
  <stageThreshold>-1.4313951730728149e+00</stageThreshold>
  <weakClassifiers>
    <_>
      <internalNodes>
        0 -1 112397 -7.3316916823387146e-02</internalNodes>
      <leafValues>
        7.7777779102325439e-01 -7.1772807836532593e-01</leafValues></_>
    <_>
      <internalNodes>
        0 -1 125051 1.3007256202399731e-03</internalNodes>
      <leafValues>
        -3.5873419046401978e-01 2.4996463954448700e-01</leafValues></_>
    <_>
      <internalNodes>
        0 -1 11884 1.8709764117375016e-04</internalNodes>
      <leafValues>
        -2.3927180469036102e-01 3.4497851133346558e-01</leafValues></_>
    <_>
      <internalNodes>
        0 -1 151937 4.5782569795846939e-03</internalNodes>
      <leafValues>
        9.9763669073581696e-02 -8.5099905729293823e-01</leafValues></_>
    <_>
      <internalNodes>
        0 -1 36610 7.5277080759406090e-04</internalNodes>
      <leafValues>
        -1.3987724483013153e-01 5.4532343149185181e-01</leafValues></_>
    <_>
      <internalNodes>
        0 -1 27746 -1.1122736614197493e-03</internalNodes>
      <leafValues>
        3.5045695304870605e-01 -2.2057092189788818e-01</leafValues></_>
    <_>
      <internalNodes>
        0 -1 98744 5.3004696965217590e-03</internalNodes>
      <leafValues>
        1.2559838593006134e-01 -6.3719719648361206e-01</leafValues></_>
    <_>
      <internalNodes>
        0 -1 99406 -3.8973167538642883e-03</internalNodes>
      <leafValues>
        -7.0069962739944458e-01 1.2717165052890778e-01</leafValues></_>
    <_>
      <internalNodes>
        0 -1 53617 4.3028257787227631e-03</internalNodes>
      <leafValues>
        -2.1891024708747864e-01 4.4816097617149353e-01</leafValues></_>
    <_>
      <internalNodes>
        0 -1 25720 -5.5160013289423659e-05</internalNodes>
      <leafValues>
        1.9205759465694427e-01 -4.5058098435401917e-01</leafValues></_>
    <_>
      <internalNodes>
        0 -1 45546 9.5632014563307166e-05</internalNodes>
      <leafValues>
        -2.4159127473831177e-01 3.2242259383201599e-01</leafValues></_>
    <_>
      <internalNodes>
        0 -1 160883 -6.0171078075654805e-05</internalNodes>
      <leafValues>
        2.8985109925270081e-01 -2.9042911529541016e-01</leafValues></_>
    <_>
      <internalNodes>
        0 -1 49459 -5.2641483489423990e-04</internalNodes>
      <leafValues>
        -5.2163636684417725e-01 1.6500204801559448e-01</leafValues></_></weakClassifiers></stage13>
</opencv_storage>
