<?xml version="1.0"?>
<opencv_storage>
<stage17>
  <maxWeakCount>13</maxWeakCount>
  <stageThreshold>-1.4849864244461060e+00</stageThreshold>
  <weakClassifiers>
    <_>
      <internalNodes>
        0 -1 57591 -6.6666379570960999e-02</internalNodes>
      <leafValues>
        -6.8493150174617767e-02 -7.3622405529022217e-01</leafValues></_>
    <_>
      <internalNodes>
        0 -1 49459 -2.9216043913038447e-05</internalNodes>
      <leafValues>
        3.9236899465322495e-02 -5.2730405330657959e-01</leafValues></_>
    <_>
      <internalNodes>
        0 -1 91324 7.3557263240218163e-03</internalNodes>
      <leafValues>
        9.8091177642345428e-02 -6.2224858999252319e-01</leafValues></_>
    <_>
      <internalNodes>
        0 -1 10226 3.3659256994724274e-02</internalNodes>
      <leafValues>
        1.2838561832904816e-01 -6.2753242254257202e-01</leafValues></_>
    <_>
      <internalNodes>
        0 -1 31111 -1.2992716801818460e-04</internalNodes>
      <leafValues>
        3.5011091828346252e-01 -2.1129675209522247e-01</leafValues></_>
    <_>
      <internalNodes>
        0 -1 27763 5.2004866302013397e-03</internalNodes>
      <leafValues>
        -1.6191375255584717e-01 5.1322937011718750e-01</leafValues></_>
    <_>
      <internalNodes>
        0 -1 2939 -2.9225140810012817e-02</internalNodes>
      <leafValues>
        2.8099158406257629e-01 -2.7059260010719299e-01</leafValues></_>
    <_>
      <internalNodes>
        0 -1 106747 1.2797468807548285e-03</internalNodes>
      <leafValues>
        8.8628493249416351e-02 -8.7147355079650879e-01</leafValues></_>
    <_>
      <internalNodes>
        0 -1 157422 1.4113278593868017e-03</internalNodes>
      <leafValues>
        -2.4251025915145874e-01 3.9856398105621338e-01</leafValues></_>
    <_>
      <internalNodes>
        0 -1 89812 3.7073128623887897e-04</internalNodes>
      <leafValues>
        1.1032950878143311e-01 -6.6975027322769165e-01</leafValues></_>
    <_>
      <internalNodes>
        0 -1 69839 -4.3693181942217052e-04</internalNodes>
      <leafValues>
        2.9044634103775024e-01 -2.5734695792198181e-01</leafValues></_>
    <_>
      <internalNodes>
        0 -1 69567 1.4345063827931881e-03</internalNodes>
      <leafValues>
        -1.4425110816955566e-01 5.2006441354751587e-01</leafValues></_>
    <_>
      <internalNodes>
        0 -1 155212 2.7618531021289527e-05</internalNodes>
      <leafValues>
        -3.3230221271514893e-01 2.3340941965579987e-01</leafValues></_></weakClassifiers></stage17>
</opencv_storage>
