<?xml version="1.0"?>
<opencv_storage>
<stage0>
  <maxWeakCount>5</maxWeakCount>
  <stageThreshold>-1.5883001089096069e+00</stageThreshold>
  <weakClassifiers>
    <_>
      <internalNodes>
        0 -1 26709 1.3329820707440376e-02</internalNodes>
      <leafValues>
        -8.5535198450088501e-01 4.6853145956993103e-01</leafValues></_>
    <_>
      <internalNodes>
        0 -1 112228 -7.4541792273521423e-03</internalNodes>
      <leafValues>
        3.6248728632926941e-01 -8.3258807659149170e-01</leafValues></_>
    <_>
      <internalNodes>
        0 -1 159726 4.5791099546477199e-04</internalNodes>
      <leafValues>
        -8.6675828695297241e-01 3.4212860465049744e-01</leafValues></_>
    <_>
      <internalNodes>
        0 -1 80660 -3.1277863308787346e-03</internalNodes>
      <leafValues>
        6.1459082365036011e-01 -4.6078822016716003e-01</leafValues></_>
    <_>
      <internalNodes>
        0 -1 12923 -2.5259267538785934e-02</internalNodes>
      <leafValues>
        3.5180744528770447e-01 -7.7061408758163452e-01</leafValues></_></weakClassifiers></stage0>
</opencv_storage>
