<?xml version="1.0"?>
<opencv_storage>
<stage18>
  <maxWeakCount>13</maxWeakCount>
  <stageThreshold>-1.4923377037048340e+00</stageThreshold>
  <weakClassifiers>
    <_>
      <internalNodes>
        0 -1 114415 2.1669256966561079e-03</internalNodes>
      <leafValues>
        -7.8947371244430542e-01 -3.7313431501388550e-01</leafValues></_>
    <_>
      <internalNodes>
        0 -1 59920 -3.4652695059776306e-02</internalNodes>
      <leafValues>
        1.4905925095081329e-01 -4.0381541848182678e-01</leafValues></_>
    <_>
      <internalNodes>
        0 -1 156733 7.9000387340784073e-03</internalNodes>
      <leafValues>
        -1.6921862959861755e-01 5.0630772113800049e-01</leafValues></_>
    <_>
      <internalNodes>
        0 -1 79738 -3.7733139470219612e-03</internalNodes>
      <leafValues>
        2.7630698680877686e-01 -2.6437741518020630e-01</leafValues></_>
    <_>
      <internalNodes>
        0 -1 59854 2.3855291306972504e-02</internalNodes>
      <leafValues>
        8.1007502973079681e-02 -8.8000494241714478e-01</leafValues></_>
    <_>
      <internalNodes>
        0 -1 31862 -9.3041744548827410e-04</internalNodes>
      <leafValues>
        4.5744967460632324e-01 -1.6188733279705048e-01</leafValues></_>
    <_>
      <internalNodes>
        0 -1 49488 1.0869852267205715e-03</internalNodes>
      <leafValues>
        -2.0955614745616913e-01 3.5884159803390503e-01</leafValues></_>
    <_>
      <internalNodes>
        0 -1 158403 6.6552922362461686e-04</internalNodes>
      <leafValues>
        -1.6367387771606445e-01 4.0771481394767761e-01</leafValues></_>
    <_>
      <internalNodes>
        0 -1 161926 4.6235406771302223e-03</internalNodes>
      <leafValues>
        -1.8723404407501221e-01 3.8289123773574829e-01</leafValues></_>
    <_>
      <internalNodes>
        0 -1 10638 1.1527224443852901e-02</internalNodes>
      <leafValues>
        8.2719787955284119e-02 -7.1851944923400879e-01</leafValues></_>
    <_>
      <internalNodes>
        0 -1 121306 -1.1394016910344362e-03</internalNodes>
      <leafValues>
        -3.6763069033622742e-01 1.7852301895618439e-01</leafValues></_>
    <_>
      <internalNodes>
        0 -1 15398 2.1289031952619553e-02</internalNodes>
      <leafValues>
        1.0039321333169937e-01 -6.8201565742492676e-01</leafValues></_>
    <_>
      <internalNodes>
        0 -1 78401 -2.0803349092602730e-02</internalNodes>
      <leafValues>
        -6.9482684135437012e-01 8.9943103492259979e-02</leafValues></_></weakClassifiers></stage18>
</opencv_storage>
