<?xml version="1.0"?>
<opencv_storage>
<stage11>
  <maxWeakCount>11</maxWeakCount>
  <stageThreshold>-1.6472247838973999e+00</stageThreshold>
  <weakClassifiers>
    <_>
      <internalNodes>
        0 -1 86178 3.1810853630304337e-02</internalNodes>
      <leafValues>
        -7.4035090208053589e-01 6.0000002384185791e-01</leafValues></_>
    <_>
      <internalNodes>
        0 -1 106681 -3.3130429801531136e-04</internalNodes>
      <leafValues>
        6.3323922455310822e-02 -5.2735221385955811e-01</leafValues></_>
    <_>
      <internalNodes>
        0 -1 114401 -4.1550979949533939e-04</internalNodes>
      <leafValues>
        -6.7119336128234863e-01 1.2121900916099548e-01</leafValues></_>
    <_>
      <internalNodes>
        0 -1 159705 9.8763754067476839e-05</internalNodes>
      <leafValues>
        -4.3659928441047668e-01 2.0348359644412994e-01</leafValues></_>
    <_>
      <internalNodes>
        0 -1 38713 -4.1573066264390945e-02</internalNodes>
      <leafValues>
        3.7959069013595581e-01 -2.6974591612815857e-01</leafValues></_>
    <_>
      <internalNodes>
        0 -1 50340 1.0457053780555725e-02</internalNodes>
      <leafValues>
        -2.5826680660247803e-01 3.8982430100440979e-01</leafValues></_>
    <_>
      <internalNodes>
        0 -1 61225 -2.1780230104923248e-02</internalNodes>
      <leafValues>
        8.1915378570556641e-01 -1.0405337810516357e-01</leafValues></_>
    <_>
      <internalNodes>
        0 -1 25729 4.4804986828239635e-05</internalNodes>
      <leafValues>
        -3.0654197931289673e-01 2.9762598872184753e-01</leafValues></_>
    <_>
      <internalNodes>
        0 -1 162099 3.0082796001806855e-05</internalNodes>
      <leafValues>
        -5.0752949714660645e-01 1.6754660010337830e-01</leafValues></_>
    <_>
      <internalNodes>
        0 -1 68061 2.7553010731935501e-03</internalNodes>
      <leafValues>
        -2.7228417992591858e-01 3.2969099283218384e-01</leafValues></_>
    <_>
      <internalNodes>
        0 -1 161791 5.6014454457908869e-04</internalNodes>
      <leafValues>
        -1.8646205961704254e-01 5.1759386062622070e-01</leafValues></_></weakClassifiers></stage11>
</opencv_storage>
